{
  "default_gini": {
    "description": "Default Gini criterion, depth 5",
    "tree_structure": {
      "depth": 0,
      "n_samples": 8124.0,
      "class_counts": [
        4208.0,
        3916.0
      ],
      "impurity": 0.4994,
      "is_leaf": false,
      "type": "split",
      "feature_name": "odor=n",
      "feature_idx": 25,
      "split_condition": "odor=n == 1",
      "left_condition": "odor=n == 1 (TRUE)",
      "right_condition": "odor=n == 0 (FALSE/NOT)",
      "left": {
        "depth": 1,
        "n_samples": 4596.0,
        "class_counts": [
          800.0,
          3796.0
        ],
        "impurity": 0.2875,
        "is_leaf": false,
        "type": "split",
        "feature_name": "stalk_root=c",
        "feature_idx": 52,
        "split_condition": "stalk_root=c == 1",
        "left_condition": "stalk_root=c == 1 (TRUE)",
        "right_condition": "stalk_root=c == 0 (FALSE/NOT)",
        "left": {
          "depth": 2,
          "n_samples": 4048.0,
          "class_counts": [
            288.0,
            3760.0
          ],
          "impurity": 0.1322,
          "is_leaf": false,
          "type": "split",
          "feature_name": "stalk_root=r",
          "feature_idx": 54,
          "split_condition": "stalk_root=r == 1",
          "left_condition": "stalk_root=r == 1 (TRUE)",
          "right_condition": "stalk_root=r == 0 (FALSE/NOT)",
          "left": {
            "depth": 3,
            "n_samples": 3856.0,
            "class_counts": [
              96.0,
              3760.0
            ],
            "impurity": 0.0486,
            "is_leaf": false,
            "type": "split",
            "feature_name": "odor=a",
            "feature_idx": 23,
            "split_condition": "odor=a == 1",
            "left_condition": "odor=a == 1 (TRUE)",
            "right_condition": "odor=a == 0 (FALSE/NOT)",
            "left": {
              "depth": 4,
              "n_samples": 3808.0,
              "class_counts": [
                48.0,
                3760.0
              ],
              "impurity": 0.0249,
              "is_leaf": false,
              "type": "split",
              "feature_name": "odor=l",
              "feature_idx": 24,
              "split_condition": "odor=l == 1",
              "left_condition": "odor=l == 1 (TRUE)",
              "right_condition": "odor=l == 0 (FALSE/NOT)",
              "left": {
                "depth": 5,
                "n_samples": 3760.0,
                "class_counts": [
                  0.0,
                  3760.0
                ],
                "impurity": 0.0,
                "is_leaf": true,
                "type": "leaf",
                "prediction": 1,
                "probabilities": [
                  0.0,
                  1.0
                ]
              },
              "right": {
                "depth": 5,
                "n_samples": 48.0,
                "class_counts": [
                  48.0,
                  0.0
                ],
                "impurity": 0.0,
                "is_leaf": true,
                "type": "leaf",
                "prediction": 0,
                "probabilities": [
                  1.0,
                  0.0
                ]
              }
            },
            "right": {
              "depth": 4,
              "n_samples": 48.0,
              "class_counts": [
                48.0,
                0.0
              ],
              "impurity": 0.0,
              "is_leaf": true,
              "type": "leaf",
              "prediction": 0,
              "probabilities": [
                1.0,
                0.0
              ]
            }
          },
          "right": {
            "depth": 3,
            "n_samples": 192.0,
            "class_counts": [
              192.0,
              0.0
            ],
            "impurity": 0.0,
            "is_leaf": true,
            "type": "leaf",
            "prediction": 0,
            "probabilities": [
              1.0,
              0.0
            ]
          }
        },
        "right": {
          "depth": 2,
          "n_samples": 548.0,
          "class_counts": [
            512.0,
            36.0
          ],
          "impurity": 0.1228,
          "is_leaf": false,
          "type": "split",
          "feature_name": "bruises=t",
          "feature_idx": 20,
          "split_condition": "bruises=t == 1",
          "left_condition": "bruises=t == 1 (TRUE)",
          "right_condition": "bruises=t == 0 (FALSE/NOT)",
          "left": {
            "depth": 3,
            "n_samples": 36.0,
            "class_counts": [
              0.0,
              36.0
            ],
            "impurity": 0.0,
            "is_leaf": true,
            "type": "leaf",
            "prediction": 1,
            "probabilities": [
              0.0,
              1.0
            ]
          },
          "right": {
            "depth": 3,
            "n_samples": 512.0,
            "class_counts": [
              512.0,
              0.0
            ],
            "impurity": 0.0,
            "is_leaf": true,
            "type": "leaf",
            "prediction": 0,
            "probabilities": [
              1.0,
              0.0
            ]
          }
        }
      },
      "right": {
        "depth": 1,
        "n_samples": 3528.0,
        "class_counts": [
          3408.0,
          120.0
        ],
        "impurity": 0.0657,
        "is_leaf": false,
        "type": "split",
        "feature_name": "spore_print_color=r",
        "feature_idx": 100,
        "split_condition": "spore_print_color=r == 1",
        "left_condition": "spore_print_color=r == 1 (TRUE)",
        "right_condition": "spore_print_color=r == 0 (FALSE/NOT)",
        "left": {
          "depth": 2,
          "n_samples": 3456.0,
          "class_counts": [
            3408.0,
            48.0
          ],
          "impurity": 0.0274,
          "is_leaf": false,
          "type": "split",
          "feature_name": "stalk_surface_below_ring=y",
          "feature_idx": 62,
          "split_condition": "stalk_surface_below_ring=y == 1",
          "left_condition": "stalk_surface_below_ring=y == 1 (TRUE)",
          "right_condition": "stalk_surface_below_ring=y == 0 (FALSE/NOT)",
          "left": {
            "depth": 3,
            "n_samples": 3400.0,
            "class_counts": [
              3392.0,
              8.0
            ],
            "impurity": 0.0047,
            "is_leaf": false,
            "type": "split",
            "feature_name": "cap_surface=g",
            "feature_idx": 9,
            "split_condition": "cap_surface=g == 1",
            "left_condition": "cap_surface=g == 1 (TRUE)",
            "right_condition": "cap_surface=g == 0 (FALSE/NOT)",
            "left": {
              "depth": 4,
              "n_samples": 3396.0,
              "class_counts": [
                3392.0,
                4.0
              ],
              "impurity": 0.0024,
              "is_leaf": false,
              "type": "split",
              "feature_name": "cap_shape=c",
              "feature_idx": 5,
              "split_condition": "cap_shape=c == 1",
              "left_condition": "cap_shape=c == 1 (TRUE)",
              "right_condition": "cap_shape=c == 0 (FALSE/NOT)",
              "left": {
                "depth": 5,
                "n_samples": 3395.0,
                "class_counts": [
                  3392.0,
                  3.0
                ],
                "impurity": 0.0018,
                "is_leaf": true,
                "type": "leaf",
                "prediction": 0,
                "probabilities": [
                  0.9991,
                  0.0009
                ]
              },
              "right": {
                "depth": 5,
                "n_samples": 1.0,
                "class_counts": [
                  0.0,
                  1.0
                ],
                "impurity": 0.0,
                "is_leaf": true,
                "type": "leaf",
                "prediction": 1,
                "probabilities": [
                  0.0,
                  1.0
                ]
              }
            },
            "right": {
              "depth": 4,
              "n_samples": 4.0,
              "class_counts": [
                0.0,
                4.0
              ],
              "impurity": 0.0,
              "is_leaf": true,
              "type": "leaf",
              "prediction": 1,
              "probabilities": [
                0.0,
                1.0
              ]
            }
          },
          "right": {
            "depth": 3,
            "n_samples": 56.0,
            "class_counts": [
              16.0,
              40.0
            ],
            "impurity": 0.4082,
            "is_leaf": false,
            "type": "split",
            "feature_name": "gill_size=n",
            "feature_idx": 35,
            "split_condition": "gill_size=n == 1",
            "left_condition": "gill_size=n == 1 (TRUE)",
            "right_condition": "gill_size=n == 0 (FALSE/NOT)",
            "left": {
              "depth": 4,
              "n_samples": 16.0,
              "class_counts": [
                16.0,
                0.0
              ],
              "impurity": 0.0,
              "is_leaf": true,
              "type": "leaf",
              "prediction": 0,
              "probabilities": [
                1.0,
                0.0
              ]
            },
            "right": {
              "depth": 4,
              "n_samples": 40.0,
              "class_counts": [
                0.0,
                40.0
              ],
              "impurity": 0.0,
              "is_leaf": true,
              "type": "leaf",
              "prediction": 1,
              "probabilities": [
                0.0,
                1.0
              ]
            }
          }
        },
        "right": {
          "depth": 2,
          "n_samples": 72.0,
          "class_counts": [
            0.0,
            72.0
          ],
          "impurity": 0.0,
          "is_leaf": true,
          "type": "leaf",
          "prediction": 1,
          "probabilities": [
            0.0,
            1.0
          ]
        }
      }
    },
    "tree_depth": 0,
    "n_samples": 8124.0,
    "feature_importances": [
      0.0,
      0.0,
      0.0,
      0.0,
      0.0,
      0.000492717471944591,
      0.0,
      0.0,
      0.0,
      0.001967971549707893,
      0.0,
      0.0,
      0.0,
      0.0,
      0.0,
      0.0,
      0.0,
      0.0,
      0.0,
      0.0,
      0.016606787904910155,
      0.0,
      0.0,
      0.022817953885513623,
      0.023400539942164695,
      0.6180124490914335,
      0.0,
      0.0,
      0.0,
      0.0,
      0.0,
      0.0,
      0.0,
      0.0,
      0.0,
      0.005642683390309253,
      0.0,
      0.0,
      0.0,
      0.0,
      0.0,
      0.0,
      0.0,
      0.0,
      0.0,
      0.0,
      0.0,
      0.0,
      0.0,
      0.0,
      0.0,
      0.0,
      0.17754879008670973,
      0.0,
      0.08586044307908622,
      0.0,
      0.0,
      0.0,
      0.0,
      0.0,
      0.0,
      0.0,
      0.013786845776138033,
      0.0,
      0.0,
      0.0,
      0.0,
      0.0,
      0.0,
      0.0,
      0.0,
      0.0,
      0.0,
      0.0,
      0.0,
      0.0,
      0.0,
      0.0,
      0.0,
      0.0,
      0.0,
      0.0,
      0.0,
      0.0,
      0.0,
      0.0,
      0.0,
      0.0,
      0.0,
      0.0,
      0.0,
      0.0,
      0.0,
      0.0,
      0.0,
      0.0,
      0.0,
      0.0,
      0.0,
      0.0,
      0.033862817822082295,
      0.0,
      0.0,
      0.0,
      0.0,
      0.0,
      0.0,
      0.0,
      0.0,
      0.0,
      0.0,
      0.0,
      0.0,
      0.0,
      0.0,
      0.0,
      0.0
    ],
    "top_features": [
      [
        "odor=n",
        0.6180124490914335
      ],
      [
        "stalk_root=c",
        0.17754879008670973
      ],
      [
        "stalk_root=r",
        0.08586044307908622
      ],
      [
        "spore_print_color=r",
        0.033862817822082295
      ],
      [
        "odor=l",
        0.023400539942164695
      ],
      [
        "odor=a",
        0.022817953885513623
      ],
      [
        "bruises=t",
        0.016606787904910155
      ],
      [
        "stalk_surface_below_ring=y",
        0.013786845776138033
      ],
      [
        "gill_size=n",
        0.005642683390309253
      ],
      [
        "cap_surface=g",
        0.001967971549707893
      ]
    ],
    "n_features": 117,
    "classes": [
      0,
      1
    ]
  },
  "entropy_shallow": {
    "description": "Entropy criterion, shallow tree (depth 3)",
    "tree_structure": {
      "depth": 0,
      "n_samples": 8124.0,
      "class_counts": [
        4208.0,
        3916.0
      ],
      "impurity": 0.9991,
      "is_leaf": false,
      "type": "split",
      "feature_name": "odor=n",
      "feature_idx": 25,
      "split_condition": "odor=n == 1",
      "left_condition": "odor=n == 1 (TRUE)",
      "right_condition": "odor=n == 0 (FALSE/NOT)",
      "left": {
        "depth": 1,
        "n_samples": 4596.0,
        "class_counts": [
          800.0,
          3796.0
        ],
        "impurity": 0.6669,
        "is_leaf": false,
        "type": "split",
        "feature_name": "bruises=t",
        "feature_idx": 20,
        "split_condition": "bruises=t == 1",
        "left_condition": "bruises=t == 1 (TRUE)",
        "right_condition": "bruises=t == 0 (FALSE/NOT)",
        "left": {
          "depth": 2,
          "n_samples": 3252.0,
          "class_counts": [
            0.0,
            3252.0
          ],
          "impurity": -0.0,
          "is_leaf": true,
          "type": "leaf",
          "prediction": 1,
          "probabilities": [
            0.0,
            1.0
          ]
        },
        "right": {
          "depth": 2,
          "n_samples": 1344.0,
          "class_counts": [
            800.0,
            544.0
          ],
          "impurity": 0.9737,
          "is_leaf": false,
          "type": "split",
          "feature_name": "stalk_root=c",
          "feature_idx": 52,
          "split_condition": "stalk_root=c == 1",
          "left_condition": "stalk_root=c == 1 (TRUE)",
          "right_condition": "stalk_root=c == 0 (FALSE/NOT)",
          "left": {
            "depth": 3,
            "n_samples": 832.0,
            "class_counts": [
              288.0,
              544.0
            ],
            "impurity": 0.9306,
            "is_leaf": true,
            "type": "leaf",
            "prediction": 1,
            "probabilities": [
              0.3462,
              0.6538
            ]
          },
          "right": {
            "depth": 3,
            "n_samples": 512.0,
            "class_counts": [
              512.0,
              0.0
            ],
            "impurity": -0.0,
            "is_leaf": true,
            "type": "leaf",
            "prediction": 0,
            "probabilities": [
              1.0,
              0.0
            ]
          }
        }
      },
      "right": {
        "depth": 1,
        "n_samples": 3528.0,
        "class_counts": [
          3408.0,
          120.0
        ],
        "impurity": 0.2141,
        "is_leaf": false,
        "type": "split",
        "feature_name": "spore_print_color=r",
        "feature_idx": 100,
        "split_condition": "spore_print_color=r == 1",
        "left_condition": "spore_print_color=r == 1 (TRUE)",
        "right_condition": "spore_print_color=r == 0 (FALSE/NOT)",
        "left": {
          "depth": 2,
          "n_samples": 3456.0,
          "class_counts": [
            3408.0,
            48.0
          ],
          "impurity": 0.1056,
          "is_leaf": false,
          "type": "split",
          "feature_name": "stalk_surface_below_ring=y",
          "feature_idx": 62,
          "split_condition": "stalk_surface_below_ring=y == 1",
          "left_condition": "stalk_surface_below_ring=y == 1 (TRUE)",
          "right_condition": "stalk_surface_below_ring=y == 0 (FALSE/NOT)",
          "left": {
            "depth": 3,
            "n_samples": 3400.0,
            "class_counts": [
              3392.0,
              8.0
            ],
            "impurity": 0.0239,
            "is_leaf": true,
            "type": "leaf",
            "prediction": 0,
            "probabilities": [
              0.9976,
              0.0024
            ]
          },
          "right": {
            "depth": 3,
            "n_samples": 56.0,
            "class_counts": [
              16.0,
              40.0
            ],
            "impurity": 0.8631,
            "is_leaf": true,
            "type": "leaf",
            "prediction": 1,
            "probabilities": [
              0.2857,
              0.7143
            ]
          }
        },
        "right": {
          "depth": 2,
          "n_samples": 72.0,
          "class_counts": [
            0.0,
            72.0
          ],
          "impurity": -0.0,
          "is_leaf": true,
          "type": "leaf",
          "prediction": 1,
          "probabilities": [
            0.0,
            1.0
          ]
        }
      }
    },
    "tree_depth": 0,
    "n_samples": 8124.0,
    "feature_importances": [
      0.0,
      0.0,
      0.0,
      0.0,
      0.0,
      0.0,
      0.0,
      0.0,
      0.0,
      0.0,
      0.0,
      0.0,
      0.0,
      0.0,
      0.0,
      0.0,
      0.0,
      0.0,
      0.0,
      0.0,
      0.24354324042914843,
      0.0,
      0.0,
      0.0,
      0.0,
      0.595607014733911,
      0.0,
      0.0,
      0.0,
      0.0,
      0.0,
      0.0,
      0.0,
      0.0,
      0.0,
      0.0,
      0.0,
      0.0,
      0.0,
      0.0,
      0.0,
      0.0,
      0.0,
      0.0,
      0.0,
      0.0,
      0.0,
      0.0,
      0.0,
      0.0,
      0.0,
      0.0,
      0.07408869178303831,
      0.0,
      0.0,
      0.0,
      0.0,
      0.0,
      0.0,
      0.0,
      0.0,
      0.0,
      0.03261149858662663,
      0.0,
      0.0,
      0.0,
      0.0,
      0.0,
      0.0,
      0.0,
      0.0,
      0.0,
      0.0,
      0.0,
      0.0,
      0.0,
      0.0,
      0.0,
      0.0,
      0.0,
      0.0,
      0.0,
      0.0,
      0.0,
      0.0,
      0.0,
      0.0,
      0.0,
      0.0,
      0.0,
      0.0,
      0.0,
      0.0,
      0.0,
      0.0,
      0.0,
      0.0,
      0.0,
      0.0,
      0.0,
      0.054149554467275575,
      0.0,
      0.0,
      0.0,
      0.0,
      0.0,
      0.0,
      0.0,
      0.0,
      0.0,
      0.0,
      0.0,
      0.0,
      0.0,
      0.0,
      0.0,
      0.0
    ],
    "top_features": [
      [
        "odor=n",
        0.595607014733911
      ],
      [
        "bruises=t",
        0.24354324042914843
      ],
      [
        "stalk_root=c",
        0.07408869178303831
      ],
      [
        "spore_print_color=r",
        0.054149554467275575
      ],
      [
        "stalk_surface_below_ring=y",
        0.03261149858662663
      ],
      [
        "cap_shape=x",
        0.0
      ],
      [
        "cap_shape=b",
        0.0
      ],
      [
        "cap_shape=s",
        0.0
      ],
      [
        "cap_shape=f",
        0.0
      ],
      [
        "cap_shape=k",
        0.0
      ]
    ],
    "n_features": 117,
    "classes": [
      0,
      1
    ]
  },
  "gain_ratio_medium": {
    "description": "Gain ratio criterion, medium depth",
    "tree_structure": {
      "depth": 0,
      "n_samples": 8124.0,
      "class_counts": [
        4208.0,
        3916.0
      ],
      "impurity": 0.9991,
      "is_leaf": false,
      "type": "split",
      "feature_name": "odor=n",
      "feature_idx": 25,
      "split_condition": "odor=n == 1",
      "left_condition": "odor=n == 1 (TRUE)",
      "right_condition": "odor=n == 0 (FALSE/NOT)",
      "left": {
        "depth": 1,
        "n_samples": 4596.0,
        "class_counts": [
          800.0,
          3796.0
        ],
        "impurity": 0.6669,
        "is_leaf": false,
        "type": "split",
        "feature_name": "odor=a",
        "feature_idx": 23,
        "split_condition": "odor=a == 1",
        "left_condition": "odor=a == 1 (TRUE)",
        "right_condition": "odor=a == 0 (FALSE/NOT)",
        "left": {
          "depth": 2,
          "n_samples": 4196.0,
          "class_counts": [
            400.0,
            3796.0
          ],
          "impurity": 0.454,
          "is_leaf": false,
          "type": "split",
          "feature_name": "odor=l",
          "feature_idx": 24,
          "split_condition": "odor=l == 1",
          "left_condition": "odor=l == 1 (TRUE)",
          "right_condition": "odor=l == 0 (FALSE/NOT)",
          "left": {
            "depth": 3,
            "n_samples": 3796.0,
            "class_counts": [
              0.0,
              3796.0
            ],
            "impurity": -0.0,
            "is_leaf": true,
            "type": "leaf",
            "prediction": 1,
            "probabilities": [
              0.0,
              1.0
            ]
          },
          "right": {
            "depth": 3,
            "n_samples": 400.0,
            "class_counts": [
              400.0,
              0.0
            ],
            "impurity": -0.0,
            "is_leaf": true,
            "type": "leaf",
            "prediction": 0,
            "probabilities": [
              1.0,
              0.0
            ]
          }
        },
        "right": {
          "depth": 2,
          "n_samples": 400.0,
          "class_counts": [
            400.0,
            0.0
          ],
          "impurity": -0.0,
          "is_leaf": true,
          "type": "leaf",
          "prediction": 0,
          "probabilities": [
            1.0,
            0.0
          ]
        }
      },
      "right": {
        "depth": 1,
        "n_samples": 3528.0,
        "class_counts": [
          3408.0,
          120.0
        ],
        "impurity": 0.2141,
        "is_leaf": false,
        "type": "split",
        "feature_name": "spore_print_color=r",
        "feature_idx": 100,
        "split_condition": "spore_print_color=r == 1",
        "left_condition": "spore_print_color=r == 1 (TRUE)",
        "right_condition": "spore_print_color=r == 0 (FALSE/NOT)",
        "left": {
          "depth": 2,
          "n_samples": 3456.0,
          "class_counts": [
            3408.0,
            48.0
          ],
          "impurity": 0.1056,
          "is_leaf": false,
          "type": "split",
          "feature_name": "cap_color=y",
          "feature_idx": 11,
          "split_condition": "cap_color=y == 1",
          "left_condition": "cap_color=y == 1 (TRUE)",
          "right_condition": "cap_color=y == 0 (FALSE/NOT)",
          "left": {
            "depth": 3,
            "n_samples": 3432.0,
            "class_counts": [
              3408.0,
              24.0
            ],
            "impurity": 0.0601,
            "is_leaf": false,
            "type": "split",
            "feature_name": "stalk_color_below_ring=y",
            "feature_idx": 79,
            "split_condition": "stalk_color_below_ring=y == 1",
            "left_condition": "stalk_color_below_ring=y == 1 (TRUE)",
            "right_condition": "stalk_color_below_ring=y == 0 (FALSE/NOT)",
            "left": {
              "depth": 4,
              "n_samples": 3424.0,
              "class_counts": [
                3408.0,
                16.0
              ],
              "impurity": 0.0429,
              "is_leaf": false,
              "type": "split",
              "feature_name": "cap_surface=g",
              "feature_idx": 9,
              "split_condition": "cap_surface=g == 1",
              "left_condition": "cap_surface=g == 1 (TRUE)",
              "right_condition": "cap_surface=g == 0 (FALSE/NOT)",
              "left": {
                "depth": 5,
                "n_samples": 3420.0,
                "class_counts": [
                  3408.0,
                  12.0
                ],
                "impurity": 0.0337,
                "is_leaf": false,
                "type": "split",
                "feature_name": "cap_shape=c",
                "feature_idx": 5,
                "split_condition": "cap_shape=c == 1",
                "left_condition": "cap_shape=c == 1 (TRUE)",
                "right_condition": "cap_shape=c == 0 (FALSE/NOT)",
                "left": {
                  "depth": 6,
                  "n_samples": 3419.0,
                  "class_counts": [
                    3408.0,
                    11.0
                  ],
                  "impurity": 0.0313,
                  "is_leaf": false,
                  "type": "split",
                  "feature_name": "stalk_surface_below_ring=y",
                  "feature_idx": 62,
                  "split_condition": "stalk_surface_below_ring=y == 1",
                  "left_condition": "stalk_surface_below_ring=y == 1 (TRUE)",
                  "right_condition": "stalk_surface_below_ring=y == 0 (FALSE/NOT)",
                  "left": {
                    "depth": 7,
                    "n_samples": 3395.0,
                    "class_counts": [
                      3392.0,
                      3.0
                    ],
                    "impurity": 0.0102,
                    "is_leaf": true,
                    "type": "leaf",
                    "prediction": 0,
                    "probabilities": [
                      0.9991,
                      0.0009
                    ]
                  },
                  "right": {
                    "depth": 7,
                    "n_samples": 24.0,
                    "class_counts": [
                      16.0,
                      8.0
                    ],
                    "impurity": 0.9183,
                    "is_leaf": true,
                    "type": "leaf",
                    "prediction": 0,
                    "probabilities": [
                      0.6667,
                      0.3333
                    ]
                  }
                },
                "right": {
                  "depth": 6,
                  "n_samples": 1.0,
                  "class_counts": [
                    0.0,
                    1.0
                  ],
                  "impurity": -0.0,
                  "is_leaf": true,
                  "type": "leaf",
                  "prediction": 1,
                  "probabilities": [
                    0.0,
                    1.0
                  ]
                }
              },
              "right": {
                "depth": 5,
                "n_samples": 4.0,
                "class_counts": [
                  0.0,
                  4.0
                ],
                "impurity": -0.0,
                "is_leaf": true,
                "type": "leaf",
                "prediction": 1,
                "probabilities": [
                  0.0,
                  1.0
                ]
              }
            },
            "right": {
              "depth": 4,
              "n_samples": 8.0,
              "class_counts": [
                0.0,
                8.0
              ],
              "impurity": -0.0,
              "is_leaf": true,
              "type": "leaf",
              "prediction": 1,
              "probabilities": [
                0.0,
                1.0
              ]
            }
          },
          "right": {
            "depth": 3,
            "n_samples": 24.0,
            "class_counts": [
              0.0,
              24.0
            ],
            "impurity": -0.0,
            "is_leaf": true,
            "type": "leaf",
            "prediction": 1,
            "probabilities": [
              0.0,
              1.0
            ]
          }
        },
        "right": {
          "depth": 2,
          "n_samples": 72.0,
          "class_counts": [
            0.0,
            72.0
          ],
          "impurity": -0.0,
          "is_leaf": true,
          "type": "leaf",
          "prediction": 1,
          "probabilities": [
            0.0,
            1.0
          ]
        }
      }
    },
    "tree_depth": 0,
    "n_samples": 8124.0,
    "feature_importances": [
      0.0,
      0.0,
      0.0,
      0.0,
      0.0,
      0.001019459068429718,
      0.0,
      0.0,
      0.0,
      0.00393973761967151,
      0.0,
      0.019676137068659696,
      0.0,
      0.0,
      0.0,
      0.0,
      0.0,
      0.0,
      0.0,
      0.0,
      0.0,
      0.0,
      0.0,
      0.14394291790025204,
      0.23636703730640496,
      0.5330016312657445,
      0.0,
      0.0,
      0.0,
      0.0,
      0.0,
      0.0,
      0.0,
      0.0,
      0.0,
      0.0,
      0.0,
      0.0,
      0.0,
      0.0,
      0.0,
      0.0,
      0.0,
      0.0,
      0.0,
      0.0,
      0.0,
      0.0,
      0.0,
      0.0,
      0.0,
      0.0,
      0.0,
      0.0,
      0.0,
      0.0,
      0.0,
      0.0,
      0.0,
      0.0,
      0.0,
      0.0,
      0.0062193074796248185,
      0.0,
      0.0,
      0.0,
      0.0,
      0.0,
      0.0,
      0.0,
      0.0,
      0.0,
      0.0,
      0.0,
      0.0,
      0.0,
      0.0,
      0.0,
      0.0,
      0.007375980241424168,
      0.0,
      0.0,
      0.0,
      0.0,
      0.0,
      0.0,
      0.0,
      0.0,
      0.0,
      0.0,
      0.0,
      0.0,
      0.0,
      0.0,
      0.0,
      0.0,
      0.0,
      0.0,
      0.0,
      0.0,
      0.048457792049788485,
      0.0,
      0.0,
      0.0,
      0.0,
      0.0,
      0.0,
      0.0,
      0.0,
      0.0,
      0.0,
      0.0,
      0.0,
      0.0,
      0.0,
      0.0,
      0.0
    ],
    "top_features": [
      [
        "odor=n",
        0.5330016312657445
      ],
      [
        "odor=l",
        0.23636703730640496
      ],
      [
        "odor=a",
        0.14394291790025204
      ],
      [
        "spore_print_color=r",
        0.048457792049788485
      ],
      [
        "cap_color=y",
        0.019676137068659696
      ],
      [
        "stalk_color_below_ring=y",
        0.007375980241424168
      ],
      [
        "stalk_surface_below_ring=y",
        0.0062193074796248185
      ],
      [
        "cap_surface=g",
        0.00393973761967151
      ],
      [
        "cap_shape=c",
        0.001019459068429718
      ],
      [
        "cap_shape=x",
        0.0
      ]
    ],
    "n_features": 117,
    "classes": [
      0,
      1
    ]
  },
  "binomial_deep": {
    "description": "Binomial criterion, deeper tree",
    "tree_structure": {
      "depth": 0,
      "n_samples": 8124.0,
      "class_counts": [
        4208.0,
        3916.0
      ],
      "impurity": 0.0012,
      "is_leaf": false,
      "type": "split",
      "feature_name": "odor=n",
      "feature_idx": 25,
      "split_condition": "odor=n == 1",
      "left_condition": "odor=n == 1 (TRUE)",
      "right_condition": "odor=n == 0 (FALSE/NOT)",
      "left": {
        "depth": 1,
        "n_samples": 4596.0,
        "class_counts": [
          800.0,
          3796.0
        ],
        "impurity": 0.0,
        "is_leaf": true,
        "type": "leaf",
        "prediction": 1,
        "probabilities": [
          0.1741,
          0.8259
        ]
      },
      "right": {
        "depth": 1,
        "n_samples": 3528.0,
        "class_counts": [
          3408.0,
          120.0
        ],
        "impurity": 0.0,
        "is_leaf": true,
        "type": "leaf",
        "prediction": 0,
        "probabilities": [
          0.966,
          0.034
        ]
      }
    },
    "tree_depth": 0,
    "n_samples": 8124.0,
    "feature_importances": [
      0.0,
      0.0,
      0.0,
      0.0,
      0.0,
      0.0,
      0.0,
      0.0,
      0.0,
      0.0,
      0.0,
      0.0,
      0.0,
      0.0,
      0.0,
      0.0,
      0.0,
      0.0,
      0.0,
      0.0,
      0.0,
      0.0,
      0.0,
      0.0,
      0.0,
      1.0,
      0.0,
      0.0,
      0.0,
      0.0,
      0.0,
      0.0,
      0.0,
      0.0,
      0.0,
      0.0,
      0.0,
      0.0,
      0.0,
      0.0,
      0.0,
      0.0,
      0.0,
      0.0,
      0.0,
      0.0,
      0.0,
      0.0,
      0.0,
      0.0,
      0.0,
      0.0,
      0.0,
      0.0,
      0.0,
      0.0,
      0.0,
      0.0,
      0.0,
      0.0,
      0.0,
      0.0,
      0.0,
      0.0,
      0.0,
      0.0,
      0.0,
      0.0,
      0.0,
      0.0,
      0.0,
      0.0,
      0.0,
      0.0,
      0.0,
      0.0,
      0.0,
      0.0,
      0.0,
      0.0,
      0.0,
      0.0,
      0.0,
      0.0,
      0.0,
      0.0,
      0.0,
      0.0,
      0.0,
      0.0,
      0.0,
      0.0,
      0.0,
      0.0,
      0.0,
      0.0,
      0.0,
      0.0,
      0.0,
      0.0,
      0.0,
      0.0,
      0.0,
      0.0,
      0.0,
      0.0,
      0.0,
      0.0,
      0.0,
      0.0,
      0.0,
      0.0,
      0.0,
      0.0,
      0.0,
      0.0,
      0.0
    ],
    "top_features": [
      [
        "odor=n",
        1.0
      ],
      [
        "cap_shape=x",
        0.0
      ],
      [
        "cap_shape=b",
        0.0
      ],
      [
        "cap_shape=s",
        0.0
      ],
      [
        "cap_shape=f",
        0.0
      ],
      [
        "cap_shape=k",
        0.0
      ],
      [
        "cap_shape=c",
        0.0
      ],
      [
        "cap_surface=s",
        0.0
      ],
      [
        "cap_surface=y",
        0.0
      ],
      [
        "cap_surface=f",
        0.0
      ]
    ],
    "n_features": 117,
    "classes": [
      0,
      1
    ]
  },
  "chi_square_default": {
    "description": "Chi-square criterion, default depth",
    "tree_structure": {
      "depth": 0,
      "n_samples": 8124.0,
      "class_counts": [
        4208.0,
        3916.0
      ],
      "impurity": 0.0,
      "is_leaf": true,
      "type": "leaf",
      "prediction": 0,
      "probabilities": [
        0.518,
        0.482
      ]
    },
    "tree_depth": 0,
    "n_samples": 8124.0,
    "feature_importances": [
      0.008547008547008548,
      0.008547008547008548,
      0.008547008547008548,
      0.008547008547008548,
      0.008547008547008548,
      0.008547008547008548,
      0.008547008547008548,
      0.008547008547008548,
      0.008547008547008548,
      0.008547008547008548,
      0.008547008547008548,
      0.008547008547008548,
      0.008547008547008548,
      0.008547008547008548,
      0.008547008547008548,
      0.008547008547008548,
      0.008547008547008548,
      0.008547008547008548,
      0.008547008547008548,
      0.008547008547008548,
      0.008547008547008548,
      0.008547008547008548,
      0.008547008547008548,
      0.008547008547008548,
      0.008547008547008548,
      0.008547008547008548,
      0.008547008547008548,
      0.008547008547008548,
      0.008547008547008548,
      0.008547008547008548,
      0.008547008547008548,
      0.008547008547008548,
      0.008547008547008548,
      0.008547008547008548,
      0.008547008547008548,
      0.008547008547008548,
      0.008547008547008548,
      0.008547008547008548,
      0.008547008547008548,
      0.008547008547008548,
      0.008547008547008548,
      0.008547008547008548,
      0.008547008547008548,
      0.008547008547008548,
      0.008547008547008548,
      0.008547008547008548,
      0.008547008547008548,
      0.008547008547008548,
      0.008547008547008548,
      0.008547008547008548,
      0.008547008547008548,
      0.008547008547008548,
      0.008547008547008548,
      0.008547008547008548,
      0.008547008547008548,
      0.008547008547008548,
      0.008547008547008548,
      0.008547008547008548,
      0.008547008547008548,
      0.008547008547008548,
      0.008547008547008548,
      0.008547008547008548,
      0.008547008547008548,
      0.008547008547008548,
      0.008547008547008548,
      0.008547008547008548,
      0.008547008547008548,
      0.008547008547008548,
      0.008547008547008548,
      0.008547008547008548,
      0.008547008547008548,
      0.008547008547008548,
      0.008547008547008548,
      0.008547008547008548,
      0.008547008547008548,
      0.008547008547008548,
      0.008547008547008548,
      0.008547008547008548,
      0.008547008547008548,
      0.008547008547008548,
      0.008547008547008548,
      0.008547008547008548,
      0.008547008547008548,
      0.008547008547008548,
      0.008547008547008548,
      0.008547008547008548,
      0.008547008547008548,
      0.008547008547008548,
      0.008547008547008548,
      0.008547008547008548,
      0.008547008547008548,
      0.008547008547008548,
      0.008547008547008548,
      0.008547008547008548,
      0.008547008547008548,
      0.008547008547008548,
      0.008547008547008548,
      0.008547008547008548,
      0.008547008547008548,
      0.008547008547008548,
      0.008547008547008548,
      0.008547008547008548,
      0.008547008547008548,
      0.008547008547008548,
      0.008547008547008548,
      0.008547008547008548,
      0.008547008547008548,
      0.008547008547008548,
      0.008547008547008548,
      0.008547008547008548,
      0.008547008547008548,
      0.008547008547008548,
      0.008547008547008548,
      0.008547008547008548,
      0.008547008547008548,
      0.008547008547008548,
      0.008547008547008548
    ],
    "top_features": [
      [
        "cap_shape=x",
        0.008547008547008548
      ],
      [
        "cap_shape=b",
        0.008547008547008548
      ],
      [
        "cap_shape=s",
        0.008547008547008548
      ],
      [
        "cap_shape=f",
        0.008547008547008548
      ],
      [
        "cap_shape=k",
        0.008547008547008548
      ],
      [
        "cap_shape=c",
        0.008547008547008548
      ],
      [
        "cap_surface=s",
        0.008547008547008548
      ],
      [
        "cap_surface=y",
        0.008547008547008548
      ],
      [
        "cap_surface=f",
        0.008547008547008548
      ],
      [
        "cap_surface=g",
        0.008547008547008548
      ]
    ],
    "n_features": 117,
    "classes": [
      0,
      1
    ]
  },
  "gini_ratio_based": {
    "description": "Gini with ratio-based tree builder",
    "tree_structure": {
      "depth": 0,
      "n_samples": 8124.0,
      "class_counts": [
        4208.0,
        3916.0
      ],
      "impurity": 0.4994,
      "is_leaf": false,
      "type": "split",
      "feature_name": "cap_shape=x",
      "feature_idx": 0,
      "split_condition": "cap_shape=x == 1",
      "left_condition": "cap_shape=x == 1 (TRUE)",
      "right_condition": "cap_shape=x == 0 (FALSE/NOT)",
      "left": {
        "depth": 1,
        "n_samples": 4468.0,
        "class_counts": [
          2314.2964057114723,
          2153.7035942885277
        ],
        "impurity": 0.4994,
        "is_leaf": false,
        "type": "split",
        "feature_name": "stalk_surface_above_ring=s",
        "feature_idx": 56,
        "split_condition": "stalk_surface_above_ring=s == 1",
        "left_condition": "stalk_surface_above_ring=s == 1 (TRUE)",
        "right_condition": "stalk_surface_above_ring=s == 0 (FALSE/NOT)",
        "left": {
          "depth": 2,
          "n_samples": 1621.3274249138353,
          "class_counts": [
            839.8013052729468,
            781.5261196408886
          ],
          "impurity": 0.4994,
          "is_leaf": false,
          "type": "split",
          "feature_name": "habitat=p",
          "feature_idx": 114,
          "split_condition": "habitat=p == 1",
          "left_condition": "habitat=p == 1 (TRUE)",
          "right_condition": "habitat=p == 0 (FALSE/NOT)",
          "left": {
            "depth": 3,
            "n_samples": 1393.0164236704295,
            "class_counts": [
              721.5427265885239,
              671.4736970819057
            ],
            "impurity": 0.4994,
            "is_leaf": false,
            "type": "split",
            "feature_name": "cap_shape=s",
            "feature_idx": 2,
            "split_condition": "cap_shape=s == 1",
            "left_condition": "cap_shape=s == 1 (TRUE)",
            "right_condition": "cap_shape=s == 0 (FALSE/NOT)",
            "left": {
              "depth": 4,
              "n_samples": 1387.5294067381974,
              "class_counts": [
                718.7006085123505,
                668.828798225847
              ],
              "impurity": 0.4994,
              "is_leaf": false,
              "type": "split",
              "feature_name": "cap_color=e",
              "feature_idx": 14,
              "split_condition": "cap_color=e == 1",
              "left_condition": "cap_color=e == 1 (TRUE)",
              "right_condition": "cap_color=e == 0 (FALSE/NOT)",
              "left": {
                "depth": 5,
                "n_samples": 1131.3386004719127,
                "class_counts": [
                  586.0010869997304,
                  545.3375134721824
                ],
                "impurity": 0.4994,
                "is_leaf": true,
                "type": "leaf",
                "prediction": 0,
                "probabilities": [
                  0.518,
                  0.482
                ]
              },
              "right": {
                "depth": 5,
                "n_samples": 256.19080626628465,
                "class_counts": [
                  132.69952151262012,
                  123.49128475366452
                ],
                "impurity": 0.4994,
                "is_leaf": true,
                "type": "leaf",
                "prediction": 0,
                "probabilities": [
                  0.518,
                  0.482
                ]
              }
            },
            "right": {
              "depth": 4,
              "n_samples": 5.487016932232121,
              "class_counts": [
                2.842118076173408,
                2.6448988560587128
              ],
              "impurity": 0.4994,
              "is_leaf": false,
              "type": "split",
              "feature_name": "cap_color=n",
              "feature_idx": 10,
              "split_condition": "cap_color=n == 1",
              "left_condition": "cap_color=n == 1 (TRUE)",
              "right_condition": "cap_color=n == 0 (FALSE/NOT)",
              "left": {
                "depth": 5,
                "n_samples": 3.9443844022938928,
                "class_counts": [
                  2.0430784791793086,
                  1.9013059231145844
                ],
                "impurity": 0.4994,
                "is_leaf": true,
                "type": "leaf",
                "prediction": 0,
                "probabilities": [
                  0.518,
                  0.482
                ]
              },
              "right": {
                "depth": 5,
                "n_samples": 1.5426325299382277,
                "class_counts": [
                  0.7990395969940994,
                  0.7435929329441284
                ],
                "impurity": 0.4994,
                "is_leaf": true,
                "type": "leaf",
                "prediction": 0,
                "probabilities": [
                  0.518,
                  0.482
                ]
              }
            }
          },
          "right": {
            "depth": 3,
            "n_samples": 228.31100124340566,
            "class_counts": [
              118.25857868442283,
              110.05242255898283
            ],
            "impurity": 0.4994,
            "is_leaf": false,
            "type": "split",
            "feature_name": "gill_color=e",
            "feature_idx": 44,
            "split_condition": "gill_color=e == 1",
            "left_condition": "gill_color=e == 1 (TRUE)",
            "right_condition": "gill_color=e == 0 (FALSE/NOT)",
            "left": {
              "depth": 4,
              "n_samples": 225.61308690079522,
              "class_counts": [
                116.8611361002642,
                108.75195080053103
              ],
              "impurity": 0.4994,
              "is_leaf": false,
              "type": "split",
              "feature_name": "cap_shape=k",
              "feature_idx": 4,
              "split_condition": "cap_shape=k == 1",
              "left_condition": "cap_shape=k == 1 (TRUE)",
              "right_condition": "cap_shape=k == 0 (FALSE/NOT)",
              "left": {
                "depth": 5,
                "n_samples": 202.6185477631957,
                "class_counts": [
                  104.95062149034067,
                  97.66792627285504
                ],
                "impurity": 0.4994,
                "is_leaf": true,
                "type": "leaf",
                "prediction": 0,
                "probabilities": [
                  0.518,
                  0.482
                ]
              },
              "right": {
                "depth": 5,
                "n_samples": 22.994539137599514,
                "class_counts": [
                  11.91051460992353,
                  11.084024527675984
                ],
                "impurity": 0.4994,
                "is_leaf": true,
                "type": "leaf",
                "prediction": 0,
                "probabilities": [
                  0.518,
                  0.482
                ]
              }
            },
            "right": {
              "depth": 4,
              "n_samples": 2.6979143426104066,
              "class_counts": [
                1.3974425841586156,
                1.3004717584517913
              ],
              "impurity": 0.4994,
              "is_leaf": false,
              "type": "split",
              "feature_name": "cap_surface=y",
              "feature_idx": 7,
              "split_condition": "cap_surface=y == 1",
              "left_condition": "cap_surface=y == 1 (TRUE)",
              "right_condition": "cap_surface=y == 0 (FALSE/NOT)",
              "left": {
                "depth": 5,
                "n_samples": 1.6206083200318542,
                "class_counts": [
                  0.8394288294798182,
                  0.7811794905520361
                ],
                "impurity": 0.4994,
                "is_leaf": true,
                "type": "leaf",
                "prediction": 0,
                "probabilities": [
                  0.518,
                  0.482
                ]
              },
              "right": {
                "depth": 5,
                "n_samples": 1.0773060225785525,
                "class_counts": [
                  0.5580137546787973,
                  0.5192922678997552
                ],
                "impurity": 0.4994,
                "is_leaf": true,
                "type": "leaf",
                "prediction": 0,
                "probabilities": [
                  0.518,
                  0.482
                ]
              }
            }
          }
        },
        "right": {
          "depth": 2,
          "n_samples": 2846.672575086164,
          "class_counts": [
            1474.4951004385255,
            1372.177474647639
          ],
          "impurity": 0.4994,
          "is_leaf": false,
          "type": "split",
          "feature_name": "habitat=m",
          "feature_idx": 112,
          "split_condition": "habitat=m == 1",
          "left_condition": "habitat=m == 1 (TRUE)",
          "right_condition": "habitat=m == 0 (FALSE/NOT)",
          "left": {
            "depth": 3,
            "n_samples": 2744.354949295278,
            "class_counts": [
              1421.4974922002132,
              1322.857457095065
            ],
            "impurity": 0.4994,
            "is_leaf": false,
            "type": "split",
            "feature_name": "cap_shape=k",
            "feature_idx": 4,
            "split_condition": "cap_shape=k == 1",
            "left_condition": "cap_shape=k == 1 (TRUE)",
            "right_condition": "cap_shape=k == 0 (FALSE/NOT)",
            "left": {
              "depth": 4,
              "n_samples": 2464.6496442710913,
              "class_counts": [
                1276.6181318430274,
                1188.0315124280642
              ],
              "impurity": 0.4994,
              "is_leaf": false,
              "type": "split",
              "feature_name": "cap_color=w",
              "feature_idx": 12,
              "split_condition": "cap_color=w == 1",
              "left_condition": "cap_color=w == 1 (TRUE)",
              "right_condition": "cap_color=w == 0 (FALSE/NOT)",
              "left": {
                "depth": 5,
                "n_samples": 2149.135657313689,
                "class_counts": [
                  1113.1908968458895,
                  1035.9447604677998
                ],
                "impurity": 0.4994,
                "is_leaf": true,
                "type": "leaf",
                "prediction": 0,
                "probabilities": [
                  0.518,
                  0.482
                ]
              },
              "right": {
                "depth": 5,
                "n_samples": 315.51398695740215,
                "class_counts": [
                  163.42723499713793,
                  152.08675196026425
                ],
                "impurity": 0.4994,
                "is_leaf": true,
                "type": "leaf",
                "prediction": 0,
                "probabilities": [
                  0.518,
                  0.482
                ]
              }
            },
            "right": {
              "depth": 4,
              "n_samples": 279.7053050241864,
              "class_counts": [
                144.87936035718567,
                134.8259446670007
              ],
              "impurity": 0.4994,
              "is_leaf": false,
              "type": "split",
              "feature_name": "gill_color=k",
              "feature_idx": 37,
              "split_condition": "gill_color=k == 1",
              "left_condition": "gill_color=k == 1 (TRUE)",
              "right_condition": "gill_color=k == 0 (FALSE/NOT)",
              "left": {
                "depth": 5,
                "n_samples": 265.6580666625581,
                "class_counts": [
                  137.60329203791787,
                  128.05477462464026
                ],
                "impurity": 0.4994,
                "is_leaf": true,
                "type": "leaf",
                "prediction": 0,
                "probabilities": [
                  0.518,
                  0.482
                ]
              },
              "right": {
                "depth": 5,
                "n_samples": 14.047238361628267,
                "class_counts": [
                  7.276068319267819,
                  6.771170042360449
                ],
                "impurity": 0.4994,
                "is_leaf": true,
                "type": "leaf",
                "prediction": 0,
                "probabilities": [
                  0.518,
                  0.482
                ]
              }
            }
          },
          "right": {
            "depth": 3,
            "n_samples": 102.31762579088627,
            "class_counts": [
              52.99760823831234,
              49.32001755257393
            ],
            "impurity": 0.4994,
            "is_leaf": false,
            "type": "split",
            "feature_name": "ring_number=o",
            "feature_idx": 87,
            "split_condition": "ring_number=o == 1",
            "left_condition": "ring_number=o == 1 (TRUE)",
            "right_condition": "ring_number=o == 0 (FALSE/NOT)",
            "left": {
              "depth": 4,
              "n_samples": 8.010094781265837,
              "class_counts": [
                4.149000349528144,
                3.8610944317376927
              ],
              "impurity": 0.4994,
              "is_leaf": false,
              "type": "split",
              "feature_name": "cap_color=g",
              "feature_idx": 13,
              "split_condition": "cap_color=g == 1",
              "left_condition": "cap_color=g == 1 (TRUE)",
              "right_condition": "cap_color=g == 0 (FALSE/NOT)",
              "left": {
                "depth": 5,
                "n_samples": 6.195893107517788,
                "class_counts": [
                  3.2092956913386086,
                  2.98659741617918
                ],
                "impurity": 0.4994,
                "is_leaf": true,
                "type": "leaf",
                "prediction": 0,
                "probabilities": [
                  0.518,
                  0.482
                ]
              },
              "right": {
                "depth": 5,
                "n_samples": 1.8142016737480477,
                "class_counts": [
                  0.9397046581895354,
                  0.8744970155585124
                ],
                "impurity": 0.4994,
                "is_leaf": true,
                "type": "leaf",
                "prediction": 0,
                "probabilities": [
                  0.518,
                  0.482
                ]
              }
            },
            "right": {
              "depth": 4,
              "n_samples": 94.30753100962042,
              "class_counts": [
                48.848607888784194,
                45.45892312083623
              ],
              "impurity": 0.4994,
              "is_leaf": false,
              "type": "split",
              "feature_name": "cap_color=n",
              "feature_idx": 10,
              "split_condition": "cap_color=n == 1",
              "left_condition": "cap_color=n == 1 (TRUE)",
              "right_condition": "cap_color=n == 0 (FALSE/NOT)",
              "left": {
                "depth": 5,
                "n_samples": 67.79369535895904,
                "class_counts": [
                  35.11519818691528,
                  32.67849717204377
                ],
                "impurity": 0.4994,
                "is_leaf": true,
                "type": "leaf",
                "prediction": 0,
                "probabilities": [
                  0.518,
                  0.482
                ]
              },
              "right": {
                "depth": 5,
                "n_samples": 26.513835650661377,
                "class_counts": [
                  13.733409701868919,
                  12.78042594879246
                ],
                "impurity": 0.4994,
                "is_leaf": true,
                "type": "leaf",
                "prediction": 0,
                "probabilities": [
                  0.518,
                  0.482
                ]
              }
            }
          }
        }
      },
      "right": {
        "depth": 1,
        "n_samples": 3656.0,
        "class_counts": [
          1893.7035942885277,
          1762.296405711472
        ],
        "impurity": 0.4994,
        "is_leaf": false,
        "type": "split",
        "feature_name": "gill_color=e",
        "feature_idx": 44,
        "split_condition": "gill_color=e == 1",
        "left_condition": "gill_color=e == 1 (TRUE)",
        "right_condition": "gill_color=e == 0 (FALSE/NOT)",
        "left": {
          "depth": 2,
          "n_samples": 3612.7976366322005,
          "class_counts": [
            1871.3260038094904,
            1741.47163282271
          ],
          "impurity": 0.4994,
          "is_leaf": false,
          "type": "split",
          "feature_name": "gill_size=n",
          "feature_idx": 35,
          "split_condition": "gill_size=n == 1",
          "left_condition": "gill_size=n == 1 (TRUE)",
          "right_condition": "gill_size=n == 0 (FALSE/NOT)",
          "left": {
            "depth": 3,
            "n_samples": 2495.6942807459263,
            "class_counts": [
              1292.6983669841038,
              1202.9959137618227
            ],
            "impurity": 0.4994,
            "is_leaf": false,
            "type": "split",
            "feature_name": "odor=y",
            "feature_idx": 28,
            "split_condition": "odor=y == 1",
            "left_condition": "odor=y == 1 (TRUE)",
            "right_condition": "odor=y == 0 (FALSE/NOT)",
            "left": {
              "depth": 4,
              "n_samples": 2318.746975759509,
              "class_counts": [
                1201.0447161491895,
                1117.7022596103197
              ],
              "impurity": 0.4994,
              "is_leaf": false,
              "type": "split",
              "feature_name": "habitat=m",
              "feature_idx": 112,
              "split_condition": "habitat=m == 1",
              "left_condition": "habitat=m == 1 (TRUE)",
              "right_condition": "habitat=m == 0 (FALSE/NOT)",
              "left": {
                "depth": 5,
                "n_samples": 2235.4045192206395,
                "class_counts": [
                  1157.8757037026653,
                  1077.5288155179744
                ],
                "impurity": 0.4994,
                "is_leaf": true,
                "type": "leaf",
                "prediction": 0,
                "probabilities": [
                  0.518,
                  0.482
                ]
              },
              "right": {
                "depth": 5,
                "n_samples": 83.34245653886961,
                "class_counts": [
                  43.16901244652429,
                  40.17344409234532
                ],
                "impurity": 0.4994,
                "is_leaf": true,
                "type": "leaf",
                "prediction": 0,
                "probabilities": [
                  0.518,
                  0.482
                ]
              }
            },
            "right": {
              "depth": 4,
              "n_samples": 176.94730498641724,
              "class_counts": [
                91.6536508349143,
                85.29365415150295
              ],
              "impurity": 0.4994,
              "is_leaf": false,
              "type": "split",
              "feature_name": "stalk_color_above_ring=e",
              "feature_idx": 69,
              "split_condition": "stalk_color_above_ring=e == 1",
              "left_condition": "stalk_color_above_ring=e == 1 (TRUE)",
              "right_condition": "stalk_color_above_ring=e == 0 (FALSE/NOT)",
              "left": {
                "depth": 5,
                "n_samples": 174.85634717269295,
                "class_counts": [
                  90.57059439964205,
                  84.28575277305092
                ],
                "impurity": 0.4994,
                "is_leaf": true,
                "type": "leaf",
                "prediction": 0,
                "probabilities": [
                  0.518,
                  0.482
                ]
              },
              "right": {
                "depth": 5,
                "n_samples": 2.090957813724281,
                "class_counts": [
                  1.0830564352722518,
                  1.007901378452029
                ],
                "impurity": 0.4994,
                "is_leaf": true,
                "type": "leaf",
                "prediction": 0,
                "probabilities": [
                  0.518,
                  0.482
                ]
              }
            }
          },
          "right": {
            "depth": 3,
            "n_samples": 1117.1033558862737,
            "class_counts": [
              578.6276368253865,
              538.4757190608872
            ],
            "impurity": 0.4994,
            "is_leaf": false,
            "type": "split",
            "feature_name": "cap_color=p",
            "feature_idx": 15,
            "split_condition": "cap_color=p == 1",
            "left_condition": "cap_color=p == 1 (TRUE)",
            "right_condition": "cap_color=p == 0 (FALSE/NOT)",
            "left": {
              "depth": 4,
              "n_samples": 1097.3024101393971,
              "class_counts": [
                568.3713123912585,
                528.9310977481388
              ],
              "impurity": 0.4994,
              "is_leaf": false,
              "type": "split",
              "feature_name": "cap_shape=b",
              "feature_idx": 1,
              "split_condition": "cap_shape=b == 1",
              "left_condition": "cap_shape=b == 1 (TRUE)",
              "right_condition": "cap_shape=b == 0 (FALSE/NOT)",
              "left": {
                "depth": 5,
                "n_samples": 1036.2511189794996,
                "class_counts": [
                  536.748487034187,
                  499.5026319453127
                ],
                "impurity": 0.4994,
                "is_leaf": true,
                "type": "leaf",
                "prediction": 0,
                "probabilities": [
                  0.518,
                  0.482
                ]
              },
              "right": {
                "depth": 5,
                "n_samples": 61.05129115989753,
                "class_counts": [
                  31.622825357071495,
                  29.428465802826036
                ],
                "impurity": 0.4994,
                "is_leaf": true,
                "type": "leaf",
                "prediction": 0,
                "probabilities": [
                  0.518,
                  0.482
                ]
              }
            },
            "right": {
              "depth": 4,
              "n_samples": 19.800945746876344,
              "class_counts": [
                10.256324434127974,
                9.54462131274837
              ],
              "impurity": 0.4994,
              "is_leaf": false,
              "type": "split",
              "feature_name": "cap_surface=s",
              "feature_idx": 6,
              "split_condition": "cap_surface=s == 1",
              "left_condition": "cap_surface=s == 1 (TRUE)",
              "right_condition": "cap_surface=s == 0 (FALSE/NOT)",
              "left": {
                "depth": 5,
                "n_samples": 13.57110609534804,
                "class_counts": [
                  7.029445402415627,
                  6.541660692932413
                ],
                "impurity": 0.4994,
                "is_leaf": true,
                "type": "leaf",
                "prediction": 0,
                "probabilities": [
                  0.518,
                  0.482
                ]
              },
              "right": {
                "depth": 5,
                "n_samples": 6.229839651528303,
                "class_counts": [
                  3.2268790317123464,
                  3.002960619815957
                ],
                "impurity": 0.4994,
                "is_leaf": true,
                "type": "leaf",
                "prediction": 0,
                "probabilities": [
                  0.518,
                  0.482
                ]
              }
            }
          }
        },
        "right": {
          "depth": 2,
          "n_samples": 43.20236336779911,
          "class_counts": [
            22.377590479037256,
            20.824772888761856
          ],
          "impurity": 0.4994,
          "is_leaf": false,
          "type": "split",
          "feature_name": "spore_print_color=h",
          "feature_idx": 98,
          "split_condition": "spore_print_color=h == 1",
          "left_condition": "spore_print_color=h == 1 (TRUE)",
          "right_condition": "spore_print_color=h == 0 (FALSE/NOT)",
          "left": {
            "depth": 3,
            "n_samples": 34.52360204132839,
            "class_counts": [
              17.882239954444838,
              16.641362086883554
            ],
            "impurity": 0.4994,
            "is_leaf": false,
            "type": "split",
            "feature_name": "cap_shape=b",
            "feature_idx": 1,
            "split_condition": "cap_shape=b == 1",
            "left_condition": "cap_shape=b == 1 (TRUE)",
            "right_condition": "cap_shape=b == 0 (FALSE/NOT)",
            "left": {
              "depth": 4,
              "n_samples": 32.60279109565133,
              "class_counts": [
                16.887314737875528,
                15.715476357775803
              ],
              "impurity": 0.4994,
              "is_leaf": false,
              "type": "split",
              "feature_name": "cap_color=e",
              "feature_idx": 14,
              "split_condition": "cap_color=e == 1",
              "left_condition": "cap_color=e == 1 (TRUE)",
              "right_condition": "cap_color=e == 0 (FALSE/NOT)",
              "left": {
                "depth": 5,
                "n_samples": 26.583073389659575,
                "class_counts": [
                  13.769272873422882,
                  12.813800516236695
                ],
                "impurity": 0.4994,
                "is_leaf": true,
                "type": "leaf",
                "prediction": 0,
                "probabilities": [
                  0.518,
                  0.482
                ]
              },
              "right": {
                "depth": 5,
                "n_samples": 6.019717705991752,
                "class_counts": [
                  3.1180418644526458,
                  2.901675841539107
                ],
                "impurity": 0.4994,
                "is_leaf": true,
                "type": "leaf",
                "prediction": 0,
                "probabilities": [
                  0.518,
                  0.482
                ]
              }
            },
            "right": {
              "depth": 4,
              "n_samples": 1.9208109456770597,
              "class_counts": [
                0.9949252165693091,
                0.9258857291077507
              ],
              "impurity": 0.4994,
              "is_leaf": true,
              "type": "leaf",
              "prediction": 0,
              "probabilities": [
                0.518,
                0.482
              ]
            }
          },
          "right": {
            "depth": 3,
            "n_samples": 8.678761326470724,
            "class_counts": [
              4.495350524592418,
              4.183410801878305
            ],
            "impurity": 0.4994,
            "is_leaf": false,
            "type": "split",
            "feature_name": "ring_type=p",
            "feature_idx": 90,
            "split_condition": "ring_type=p == 1",
            "left_condition": "ring_type=p == 1 (TRUE)",
            "right_condition": "ring_type=p == 0 (FALSE/NOT)",
            "left": {
              "depth": 4,
              "n_samples": 4.439799615067987,
              "class_counts": [
                2.2996894116452595,
                2.1401102034227275
              ],
              "impurity": 0.4994,
              "is_leaf": false,
              "type": "split",
              "feature_name": "stalk_surface_below_ring=k",
              "feature_idx": 63,
              "split_condition": "stalk_surface_below_ring=k == 1",
              "left_condition": "stalk_surface_below_ring=k == 1 (TRUE)",
              "right_condition": "stalk_surface_below_ring=k == 0 (FALSE/NOT)",
              "left": {
                "depth": 5,
                "n_samples": 3.1806540816956774,
                "class_counts": [
                  1.647487983231833,
                  1.5331660984638447
                ],
                "impurity": 0.4994,
                "is_leaf": true,
                "type": "leaf",
                "prediction": 0,
                "probabilities": [
                  0.518,
                  0.482
                ]
              },
              "right": {
                "depth": 5,
                "n_samples": 1.2591455333723096,
                "class_counts": [
                  0.6522014284134267,
                  0.6069441049588828
                ],
                "impurity": 0.4994,
                "is_leaf": true,
                "type": "leaf",
                "prediction": 0,
                "probabilities": [
                  0.518,
                  0.482
                ]
              }
            },
            "right": {
              "depth": 4,
              "n_samples": 4.238961711402736,
              "class_counts": [
                2.195661112947158,
                2.043300598455578
              ],
              "impurity": 0.4994,
              "is_leaf": false,
              "type": "split",
              "feature_name": "bruises=t",
              "feature_idx": 20,
              "split_condition": "bruises=t == 1",
              "left_condition": "bruises=t == 1 (TRUE)",
              "right_condition": "bruises=t == 0 (FALSE/NOT)",
              "left": {
                "depth": 5,
                "n_samples": 2.4774237082398063,
                "class_counts": [
                  1.2832347321852666,
                  1.1941889760545399
                ],
                "impurity": 0.4994,
                "is_leaf": true,
                "type": "leaf",
                "prediction": 0,
                "probabilities": [
                  0.518,
                  0.482
                ]
              },
              "right": {
                "depth": 5,
                "n_samples": 1.7615380031629293,
                "class_counts": [
                  0.9124263807618914,
                  0.8491116224010378
                ],
                "impurity": 0.4994,
                "is_leaf": true,
                "type": "leaf",
                "prediction": 0,
                "probabilities": [
                  0.518,
                  0.482
                ]
              }
            }
          }
        }
      }
    },
    "tree_depth": 0,
    "n_samples": 8124.0,
    "feature_importances": [
      0.33486823228842527,
      0.0,
      0.0,
      0.0,
      0.05656064073378266,
      0.0,
      0.0012242813330678533,
      0.0,
      0.0,
      0.0,
      0.004113493828324799,
      0.0,
      0.050795966862835835,
      0.00016508655095182369,
      0.029268658216672648,
      0.0,
      0.0,
      0.0,
      0.0,
      0.0,
      0.0,
      0.0,
      0.0,
      0.0,
      0.0,
      0.0,
      0.0,
      0.0,
      0.051435790997397916,
      0.0,
      0.0,
      0.0,
      0.0,
      0.0,
      0.0,
      0.0,
      0.0,
      0.023058695483787316,
      0.0,
      0.0,
      0.0,
      0.0,
      0.0,
      0.0,
      0.15069894845476153,
      0.0,
      0.0,
      0.0,
      0.0,
      0.0,
      0.0,
      0.0,
      0.0,
      0.0,
      0.0,
      0.0,
      0.18416928383366374,
      0.0,
      0.0,
      0.0,
      0.0,
      0.0,
      0.0,
      0.0,
      0.0,
      0.0,
      0.0,
      0.0,
      0.0,
      0.0036468507649558344,
      0.0,
      0.0,
      0.0,
      0.0,
      0.0,
      0.0,
      0.0,
      0.0,
      0.0,
      0.0,
      0.0,
      0.0,
      0.0,
      0.0,
      0.0,
      0.0,
      0.0,
      0.002108747075365748,
      0.0,
      0.0,
      0.000536602929070975,
      0.0,
      0.0,
      0.0,
      0.0,
      0.0,
      0.0,
      0.0,
      0.0008903926053457108,
      0.0,
      0.0,
      0.0,
      0.0,
      0.0,
      0.0,
      0.0,
      0.0,
      0.0,
      0.0,
      0.0,
      0.0,
      0.0,
      0.10645832804159049,
      0.0,
      0.0,
      0.0,
      0.0
    ],
    "top_features": [
      [
        "cap_shape=x",
        0.33486823228842527
      ],
      [
        "stalk_surface_above_ring=s",
        0.18416928383366374
      ],
      [
        "gill_color=e",
        0.15069894845476153
      ],
      [
        "habitat=m",
        0.10645832804159049
      ],
      [
        "cap_shape=k",
        0.05656064073378266
      ],
      [
        "odor=y",
        0.051435790997397916
      ],
      [
        "cap_color=w",
        0.050795966862835835
      ],
      [
        "cap_color=e",
        0.029268658216672648
      ],
      [
        "gill_color=k",
        0.023058695483787316
      ],
      [
        "cap_color=n",
        0.004113493828324799
      ]
    ],
    "n_features": 117,
    "classes": [
      0,
      1
    ]
  },
  "gini_cost_complexity": {
    "description": "Gini with cost-complexity pruning",
    "tree_structure": {
      "depth": 0,
      "n_samples": 8124.0,
      "class_counts": [
        4208.0,
        3916.0
      ],
      "impurity": 0.4994,
      "is_leaf": false,
      "type": "split",
      "feature_name": "odor=n",
      "feature_idx": 25,
      "split_condition": "odor=n == 1",
      "left_condition": "odor=n == 1 (TRUE)",
      "right_condition": "odor=n == 0 (FALSE/NOT)",
      "left": {
        "depth": 1,
        "n_samples": 4596.0,
        "class_counts": [
          800.0,
          3796.0
        ],
        "impurity": 0.2875,
        "is_leaf": false,
        "type": "split",
        "feature_name": "stalk_root=c",
        "feature_idx": 52,
        "split_condition": "stalk_root=c == 1",
        "left_condition": "stalk_root=c == 1 (TRUE)",
        "right_condition": "stalk_root=c == 0 (FALSE/NOT)",
        "left": {
          "depth": 2,
          "n_samples": 4048.0,
          "class_counts": [
            288.0,
            3760.0
          ],
          "impurity": 0.1322,
          "is_leaf": false,
          "type": "split",
          "feature_name": "stalk_root=r",
          "feature_idx": 54,
          "split_condition": "stalk_root=r == 1",
          "left_condition": "stalk_root=r == 1 (TRUE)",
          "right_condition": "stalk_root=r == 0 (FALSE/NOT)",
          "left": {
            "depth": 3,
            "n_samples": 3856.0,
            "class_counts": [
              96.0,
              3760.0
            ],
            "impurity": 0.0486,
            "is_leaf": true,
            "type": "leaf",
            "prediction": 1,
            "probabilities": [
              0.0249,
              0.9751
            ]
          },
          "right": {
            "depth": 3,
            "n_samples": 192.0,
            "class_counts": [
              192.0,
              0.0
            ],
            "impurity": 0.0,
            "is_leaf": true,
            "type": "leaf",
            "prediction": 0,
            "probabilities": [
              1.0,
              0.0
            ]
          }
        },
        "right": {
          "depth": 2,
          "n_samples": 548.0,
          "class_counts": [
            512.0,
            36.0
          ],
          "impurity": 0.1228,
          "is_leaf": false,
          "type": "split",
          "feature_name": "bruises=t",
          "feature_idx": 20,
          "split_condition": "bruises=t == 1",
          "left_condition": "bruises=t == 1 (TRUE)",
          "right_condition": "bruises=t == 0 (FALSE/NOT)",
          "left": {
            "depth": 3,
            "n_samples": 36.0,
            "class_counts": [
              0.0,
              36.0
            ],
            "impurity": 0.0,
            "is_leaf": true,
            "type": "leaf",
            "prediction": 1,
            "probabilities": [
              0.0,
              1.0
            ]
          },
          "right": {
            "depth": 3,
            "n_samples": 512.0,
            "class_counts": [
              512.0,
              0.0
            ],
            "impurity": 0.0,
            "is_leaf": true,
            "type": "leaf",
            "prediction": 0,
            "probabilities": [
              1.0,
              0.0
            ]
          }
        }
      },
      "right": {
        "depth": 1,
        "n_samples": 3528.0,
        "class_counts": [
          3408.0,
          120.0
        ],
        "impurity": 0.0657,
        "is_leaf": false,
        "type": "split",
        "feature_name": "spore_print_color=r",
        "feature_idx": 100,
        "split_condition": "spore_print_color=r == 1",
        "left_condition": "spore_print_color=r == 1 (TRUE)",
        "right_condition": "spore_print_color=r == 0 (FALSE/NOT)",
        "left": {
          "depth": 2,
          "n_samples": 3456.0,
          "class_counts": [
            3408.0,
            48.0
          ],
          "impurity": 0.0274,
          "is_leaf": true,
          "type": "leaf",
          "prediction": 0,
          "probabilities": [
            0.9861,
            0.0139
          ]
        },
        "right": {
          "depth": 2,
          "n_samples": 72.0,
          "class_counts": [
            0.0,
            72.0
          ],
          "impurity": 0.0,
          "is_leaf": true,
          "type": "leaf",
          "prediction": 1,
          "probabilities": [
            0.0,
            1.0
          ]
        }
      }
    },
    "tree_depth": 0,
    "n_samples": 8124.0,
    "feature_importances": [
      0.0,
      0.0,
      0.0,
      0.0,
      0.0,
      0.0,
      0.0,
      0.0,
      0.0,
      0.0,
      0.0,
      0.0,
      0.0,
      0.0,
      0.0,
      0.0,
      0.0,
      0.0,
      0.0,
      0.0,
      0.017820520611188856,
      0.0,
      0.0,
      0.0,
      0.0,
      0.6631808420789713,
      0.0,
      0.0,
      0.0,
      0.0,
      0.0,
      0.0,
      0.0,
      0.0,
      0.0,
      0.0,
      0.0,
      0.0,
      0.0,
      0.0,
      0.0,
      0.0,
      0.0,
      0.0,
      0.0,
      0.0,
      0.0,
      0.0,
      0.0,
      0.0,
      0.0,
      0.0,
      0.19052521723941243,
      0.0,
      0.09213568598201119,
      0.0,
      0.0,
      0.0,
      0.0,
      0.0,
      0.0,
      0.0,
      0.0,
      0.0,
      0.0,
      0.0,
      0.0,
      0.0,
      0.0,
      0.0,
      0.0,
      0.0,
      0.0,
      0.0,
      0.0,
      0.0,
      0.0,
      0.0,
      0.0,
      0.0,
      0.0,
      0.0,
      0.0,
      0.0,
      0.0,
      0.0,
      0.0,
      0.0,
      0.0,
      0.0,
      0.0,
      0.0,
      0.0,
      0.0,
      0.0,
      0.0,
      0.0,
      0.0,
      0.0,
      0.0,
      0.03633773408841615,
      0.0,
      0.0,
      0.0,
      0.0,
      0.0,
      0.0,
      0.0,
      0.0,
      0.0,
      0.0,
      0.0,
      0.0,
      0.0,
      0.0,
      0.0,
      0.0
    ],
    "top_features": [
      [
        "odor=n",
        0.6631808420789713
      ],
      [
        "stalk_root=c",
        0.19052521723941243
      ],
      [
        "stalk_root=r",
        0.09213568598201119
      ],
      [
        "spore_print_color=r",
        0.03633773408841615
      ],
      [
        "bruises=t",
        0.017820520611188856
      ],
      [
        "cap_shape=x",
        0.0
      ],
      [
        "cap_shape=b",
        0.0
      ],
      [
        "cap_shape=s",
        0.0
      ],
      [
        "cap_shape=f",
        0.0
      ],
      [
        "cap_shape=k",
        0.0
      ]
    ],
    "n_features": 117,
    "classes": [
      0,
      1
    ]
  },
  "entropy_validation_pruning": {
    "description": "Entropy with validation pruning",
    "tree_structure": {
      "depth": 0,
      "n_samples": 8124.0,
      "class_counts": [
        4208.0,
        3916.0
      ],
      "impurity": 0.9991,
      "is_leaf": false,
      "type": "split",
      "feature_name": "odor=n",
      "feature_idx": 25,
      "split_condition": "odor=n == 1",
      "left_condition": "odor=n == 1 (TRUE)",
      "right_condition": "odor=n == 0 (FALSE/NOT)",
      "left": {
        "depth": 1,
        "n_samples": 4596.0,
        "class_counts": [
          800.0,
          3796.0
        ],
        "impurity": 0.6669,
        "is_leaf": false,
        "type": "split",
        "feature_name": "bruises=t",
        "feature_idx": 20,
        "split_condition": "bruises=t == 1",
        "left_condition": "bruises=t == 1 (TRUE)",
        "right_condition": "bruises=t == 0 (FALSE/NOT)",
        "left": {
          "depth": 2,
          "n_samples": 3252.0,
          "class_counts": [
            0.0,
            3252.0
          ],
          "impurity": -0.0,
          "is_leaf": true,
          "type": "leaf",
          "prediction": 1,
          "probabilities": [
            0.0,
            1.0
          ]
        },
        "right": {
          "depth": 2,
          "n_samples": 1344.0,
          "class_counts": [
            800.0,
            544.0
          ],
          "impurity": 0.9737,
          "is_leaf": false,
          "type": "split",
          "feature_name": "stalk_root=c",
          "feature_idx": 52,
          "split_condition": "stalk_root=c == 1",
          "left_condition": "stalk_root=c == 1 (TRUE)",
          "right_condition": "stalk_root=c == 0 (FALSE/NOT)",
          "left": {
            "depth": 3,
            "n_samples": 832.0,
            "class_counts": [
              288.0,
              544.0
            ],
            "impurity": 0.9306,
            "is_leaf": false,
            "type": "split",
            "feature_name": "stalk_root=r",
            "feature_idx": 54,
            "split_condition": "stalk_root=r == 1",
            "left_condition": "stalk_root=r == 1 (TRUE)",
            "right_condition": "stalk_root=r == 0 (FALSE/NOT)",
            "left": {
              "depth": 4,
              "n_samples": 640.0,
              "class_counts": [
                96.0,
                544.0
              ],
              "impurity": 0.6098,
              "is_leaf": false,
              "type": "split",
              "feature_name": "gill_spacing=c",
              "feature_idx": 33,
              "split_condition": "gill_spacing=c == 1",
              "left_condition": "gill_spacing=c == 1 (TRUE)",
              "right_condition": "gill_spacing=c == 0 (FALSE/NOT)",
              "left": {
                "depth": 5,
                "n_samples": 96.0,
                "class_counts": [
                  96.0,
                  0.0
                ],
                "impurity": -0.0,
                "is_leaf": true,
                "type": "leaf",
                "prediction": 0,
                "probabilities": [
                  1.0,
                  0.0
                ]
              },
              "right": {
                "depth": 5,
                "n_samples": 544.0,
                "class_counts": [
                  0.0,
                  544.0
                ],
                "impurity": -0.0,
                "is_leaf": true,
                "type": "leaf",
                "prediction": 1,
                "probabilities": [
                  0.0,
                  1.0
                ]
              }
            },
            "right": {
              "depth": 4,
              "n_samples": 192.0,
              "class_counts": [
                192.0,
                0.0
              ],
              "impurity": -0.0,
              "is_leaf": true,
              "type": "leaf",
              "prediction": 0,
              "probabilities": [
                1.0,
                0.0
              ]
            }
          },
          "right": {
            "depth": 3,
            "n_samples": 512.0,
            "class_counts": [
              512.0,
              0.0
            ],
            "impurity": -0.0,
            "is_leaf": true,
            "type": "leaf",
            "prediction": 0,
            "probabilities": [
              1.0,
              0.0
            ]
          }
        }
      },
      "right": {
        "depth": 1,
        "n_samples": 3528.0,
        "class_counts": [
          3408.0,
          120.0
        ],
        "impurity": 0.2141,
        "is_leaf": false,
        "type": "split",
        "feature_name": "spore_print_color=r",
        "feature_idx": 100,
        "split_condition": "spore_print_color=r == 1",
        "left_condition": "spore_print_color=r == 1 (TRUE)",
        "right_condition": "spore_print_color=r == 0 (FALSE/NOT)",
        "left": {
          "depth": 2,
          "n_samples": 3456.0,
          "class_counts": [
            3408.0,
            48.0
          ],
          "impurity": 0.1056,
          "is_leaf": false,
          "type": "split",
          "feature_name": "stalk_surface_below_ring=y",
          "feature_idx": 62,
          "split_condition": "stalk_surface_below_ring=y == 1",
          "left_condition": "stalk_surface_below_ring=y == 1 (TRUE)",
          "right_condition": "stalk_surface_below_ring=y == 0 (FALSE/NOT)",
          "left": {
            "depth": 3,
            "n_samples": 3400.0,
            "class_counts": [
              3392.0,
              8.0
            ],
            "impurity": 0.0239,
            "is_leaf": false,
            "type": "split",
            "feature_name": "cap_surface=g",
            "feature_idx": 9,
            "split_condition": "cap_surface=g == 1",
            "left_condition": "cap_surface=g == 1 (TRUE)",
            "right_condition": "cap_surface=g == 0 (FALSE/NOT)",
            "left": {
              "depth": 4,
              "n_samples": 3396.0,
              "class_counts": [
                3392.0,
                4.0
              ],
              "impurity": 0.0132,
              "is_leaf": false,
              "type": "split",
              "feature_name": "gill_size=n",
              "feature_idx": 35,
              "split_condition": "gill_size=n == 1",
              "left_condition": "gill_size=n == 1 (TRUE)",
              "right_condition": "gill_size=n == 0 (FALSE/NOT)",
              "left": {
                "depth": 5,
                "n_samples": 3200.0,
                "class_counts": [
                  3200.0,
                  0.0
                ],
                "impurity": -0.0,
                "is_leaf": true,
                "type": "leaf",
                "prediction": 0,
                "probabilities": [
                  1.0,
                  0.0
                ]
              },
              "right": {
                "depth": 5,
                "n_samples": 196.0,
                "class_counts": [
                  192.0,
                  4.0
                ],
                "impurity": 0.1437,
                "is_leaf": false,
                "type": "split",
                "feature_name": "bruises=t",
                "feature_idx": 20,
                "split_condition": "bruises=t == 1",
                "left_condition": "bruises=t == 1 (TRUE)",
                "right_condition": "bruises=t == 0 (FALSE/NOT)",
                "left": {
                  "depth": 6,
                  "n_samples": 192.0,
                  "class_counts": [
                    192.0,
                    0.0
                  ],
                  "impurity": -0.0,
                  "is_leaf": true,
                  "type": "leaf",
                  "prediction": 0,
                  "probabilities": [
                    1.0,
                    0.0
                  ]
                },
                "right": {
                  "depth": 6,
                  "n_samples": 4.0,
                  "class_counts": [
                    0.0,
                    4.0
                  ],
                  "impurity": -0.0,
                  "is_leaf": true,
                  "type": "leaf",
                  "prediction": 1,
                  "probabilities": [
                    0.0,
                    1.0
                  ]
                }
              }
            },
            "right": {
              "depth": 4,
              "n_samples": 4.0,
              "class_counts": [
                0.0,
                4.0
              ],
              "impurity": -0.0,
              "is_leaf": true,
              "type": "leaf",
              "prediction": 1,
              "probabilities": [
                0.0,
                1.0
              ]
            }
          },
          "right": {
            "depth": 3,
            "n_samples": 56.0,
            "class_counts": [
              16.0,
              40.0
            ],
            "impurity": 0.8631,
            "is_leaf": false,
            "type": "split",
            "feature_name": "gill_size=n",
            "feature_idx": 35,
            "split_condition": "gill_size=n == 1",
            "left_condition": "gill_size=n == 1 (TRUE)",
            "right_condition": "gill_size=n == 0 (FALSE/NOT)",
            "left": {
              "depth": 4,
              "n_samples": 16.0,
              "class_counts": [
                16.0,
                0.0
              ],
              "impurity": -0.0,
              "is_leaf": true,
              "type": "leaf",
              "prediction": 0,
              "probabilities": [
                1.0,
                0.0
              ]
            },
            "right": {
              "depth": 4,
              "n_samples": 40.0,
              "class_counts": [
                0.0,
                40.0
              ],
              "impurity": -0.0,
              "is_leaf": true,
              "type": "leaf",
              "prediction": 1,
              "probabilities": [
                0.0,
                1.0
              ]
            }
          }
        },
        "right": {
          "depth": 2,
          "n_samples": 72.0,
          "class_counts": [
            0.0,
            72.0
          ],
          "impurity": -0.0,
          "is_leaf": true,
          "type": "leaf",
          "prediction": 1,
          "probabilities": [
            0.0,
            1.0
          ]
        }
      }
    },
    "tree_depth": 0,
    "n_samples": 8124.0,
    "feature_importances": [
      0.0,
      0.0,
      0.0,
      0.0,
      0.0,
      0.0,
      0.0,
      0.0,
      0.0,
      0.004520789467198149,
      0.0,
      0.0,
      0.0,
      0.0,
      0.0,
      0.0,
      0.0,
      0.0,
      0.0,
      0.0,
      0.21988957706962153,
      0.0,
      0.0,
      0.0,
      0.0,
      0.5292717375920495,
      0.0,
      0.0,
      0.0,
      0.0,
      0.0,
      0.0,
      0.0,
      0.04808738702946037,
      0.0,
      0.007990003607716118,
      0.0,
      0.0,
      0.0,
      0.0,
      0.0,
      0.0,
      0.0,
      0.0,
      0.0,
      0.0,
      0.0,
      0.0,
      0.0,
      0.0,
      0.0,
      0.0,
      0.06583712022506824,
      0.0,
      0.04730527808737887,
      0.0,
      0.0,
      0.0,
      0.0,
      0.0,
      0.0,
      0.0,
      0.028979417796373075,
      0.0,
      0.0,
      0.0,
      0.0,
      0.0,
      0.0,
      0.0,
      0.0,
      0.0,
      0.0,
      0.0,
      0.0,
      0.0,
      0.0,
      0.0,
      0.0,
      0.0,
      0.0,
      0.0,
      0.0,
      0.0,
      0.0,
      0.0,
      0.0,
      0.0,
      0.0,
      0.0,
      0.0,
      0.0,
      0.0,
      0.0,
      0.0,
      0.0,
      0.0,
      0.0,
      0.0,
      0.0,
      0.048118689125134166,
      0.0,
      0.0,
      0.0,
      0.0,
      0.0,
      0.0,
      0.0,
      0.0,
      0.0,
      0.0,
      0.0,
      0.0,
      0.0,
      0.0,
      0.0,
      0.0
    ],
    "top_features": [
      [
        "odor=n",
        0.5292717375920495
      ],
      [
        "bruises=t",
        0.21988957706962153
      ],
      [
        "stalk_root=c",
        0.06583712022506824
      ],
      [
        "spore_print_color=r",
        0.048118689125134166
      ],
      [
        "gill_spacing=c",
        0.04808738702946037
      ],
      [
        "stalk_root=r",
        0.04730527808737887
      ],
      [
        "stalk_surface_below_ring=y",
        0.028979417796373075
      ],
      [
        "gill_size=n",
        0.007990003607716118
      ],
      [
        "cap_surface=g",
        0.004520789467198149
      ],
      [
        "cap_shape=x",
        0.0
      ]
    ],
    "n_features": 117,
    "classes": [
      0,
      1
    ]
  },
  "very_shallow": {
    "description": "Very shallow tree (depth 1)",
    "tree_structure": {
      "depth": 0,
      "n_samples": 8124.0,
      "class_counts": [
        4208.0,
        3916.0
      ],
      "impurity": 0.4994,
      "is_leaf": false,
      "type": "split",
      "feature_name": "odor=n",
      "feature_idx": 25,
      "split_condition": "odor=n == 1",
      "left_condition": "odor=n == 1 (TRUE)",
      "right_condition": "odor=n == 0 (FALSE/NOT)",
      "left": {
        "depth": 1,
        "n_samples": 4596.0,
        "class_counts": [
          800.0,
          3796.0
        ],
        "impurity": 0.2875,
        "is_leaf": true,
        "type": "leaf",
        "prediction": 1,
        "probabilities": [
          0.1741,
          0.8259
        ]
      },
      "right": {
        "depth": 1,
        "n_samples": 3528.0,
        "class_counts": [
          3408.0,
          120.0
        ],
        "impurity": 0.0657,
        "is_leaf": true,
        "type": "leaf",
        "prediction": 0,
        "probabilities": [
          0.966,
          0.034
        ]
      }
    },
    "tree_depth": 0,
    "n_samples": 8124.0,
    "feature_importances": [
      0.0,
      0.0,
      0.0,
      0.0,
      0.0,
      0.0,
      0.0,
      0.0,
      0.0,
      0.0,
      0.0,
      0.0,
      0.0,
      0.0,
      0.0,
      0.0,
      0.0,
      0.0,
      0.0,
      0.0,
      0.0,
      0.0,
      0.0,
      0.0,
      0.0,
      1.0,
      0.0,
      0.0,
      0.0,
      0.0,
      0.0,
      0.0,
      0.0,
      0.0,
      0.0,
      0.0,
      0.0,
      0.0,
      0.0,
      0.0,
      0.0,
      0.0,
      0.0,
      0.0,
      0.0,
      0.0,
      0.0,
      0.0,
      0.0,
      0.0,
      0.0,
      0.0,
      0.0,
      0.0,
      0.0,
      0.0,
      0.0,
      0.0,
      0.0,
      0.0,
      0.0,
      0.0,
      0.0,
      0.0,
      0.0,
      0.0,
      0.0,
      0.0,
      0.0,
      0.0,
      0.0,
      0.0,
      0.0,
      0.0,
      0.0,
      0.0,
      0.0,
      0.0,
      0.0,
      0.0,
      0.0,
      0.0,
      0.0,
      0.0,
      0.0,
      0.0,
      0.0,
      0.0,
      0.0,
      0.0,
      0.0,
      0.0,
      0.0,
      0.0,
      0.0,
      0.0,
      0.0,
      0.0,
      0.0,
      0.0,
      0.0,
      0.0,
      0.0,
      0.0,
      0.0,
      0.0,
      0.0,
      0.0,
      0.0,
      0.0,
      0.0,
      0.0,
      0.0,
      0.0,
      0.0,
      0.0,
      0.0
    ],
    "top_features": [
      [
        "odor=n",
        1.0
      ],
      [
        "cap_shape=x",
        0.0
      ],
      [
        "cap_shape=b",
        0.0
      ],
      [
        "cap_shape=s",
        0.0
      ],
      [
        "cap_shape=f",
        0.0
      ],
      [
        "cap_shape=k",
        0.0
      ],
      [
        "cap_shape=c",
        0.0
      ],
      [
        "cap_surface=s",
        0.0
      ],
      [
        "cap_surface=y",
        0.0
      ],
      [
        "cap_surface=f",
        0.0
      ]
    ],
    "n_features": 117,
    "classes": [
      0,
      1
    ]
  },
  "min_samples_high": {
    "description": "High minimum samples requirements",
    "tree_structure": {
      "depth": 0,
      "n_samples": 8124.0,
      "class_counts": [
        4208.0,
        3916.0
      ],
      "impurity": 0.4994,
      "is_leaf": false,
      "type": "split",
      "feature_name": "odor=n",
      "feature_idx": 25,
      "split_condition": "odor=n == 1",
      "left_condition": "odor=n == 1 (TRUE)",
      "right_condition": "odor=n == 0 (FALSE/NOT)",
      "left": {
        "depth": 1,
        "n_samples": 4596.0,
        "class_counts": [
          800.0,
          3796.0
        ],
        "impurity": 0.2875,
        "is_leaf": false,
        "type": "split",
        "feature_name": "stalk_root=c",
        "feature_idx": 52,
        "split_condition": "stalk_root=c == 1",
        "left_condition": "stalk_root=c == 1 (TRUE)",
        "right_condition": "stalk_root=c == 0 (FALSE/NOT)",
        "left": {
          "depth": 2,
          "n_samples": 4048.0,
          "class_counts": [
            288.0,
            3760.0
          ],
          "impurity": 0.1322,
          "is_leaf": false,
          "type": "split",
          "feature_name": "stalk_root=r",
          "feature_idx": 54,
          "split_condition": "stalk_root=r == 1",
          "left_condition": "stalk_root=r == 1 (TRUE)",
          "right_condition": "stalk_root=r == 0 (FALSE/NOT)",
          "left": {
            "depth": 3,
            "n_samples": 3856.0,
            "class_counts": [
              96.0,
              3760.0
            ],
            "impurity": 0.0486,
            "is_leaf": false,
            "type": "split",
            "feature_name": "gill_spacing=c",
            "feature_idx": 33,
            "split_condition": "gill_spacing=c == 1",
            "left_condition": "gill_spacing=c == 1 (TRUE)",
            "right_condition": "gill_spacing=c == 0 (FALSE/NOT)",
            "left": {
              "depth": 4,
              "n_samples": 192.0,
              "class_counts": [
                96.0,
                96.0
              ],
              "impurity": 0.5,
              "is_leaf": false,
              "type": "split",
              "feature_name": "bruises=t",
              "feature_idx": 20,
              "split_condition": "bruises=t == 1",
              "left_condition": "bruises=t == 1 (TRUE)",
              "right_condition": "bruises=t == 0 (FALSE/NOT)",
              "left": {
                "depth": 5,
                "n_samples": 96.0,
                "class_counts": [
                  0.0,
                  96.0
                ],
                "impurity": 0.0,
                "is_leaf": true,
                "type": "leaf",
                "prediction": 1,
                "probabilities": [
                  0.0,
                  1.0
                ]
              },
              "right": {
                "depth": 5,
                "n_samples": 96.0,
                "class_counts": [
                  96.0,
                  0.0
                ],
                "impurity": 0.0,
                "is_leaf": true,
                "type": "leaf",
                "prediction": 0,
                "probabilities": [
                  1.0,
                  0.0
                ]
              }
            },
            "right": {
              "depth": 4,
              "n_samples": 3664.0,
              "class_counts": [
                0.0,
                3664.0
              ],
              "impurity": 0.0,
              "is_leaf": true,
              "type": "leaf",
              "prediction": 1,
              "probabilities": [
                0.0,
                1.0
              ]
            }
          },
          "right": {
            "depth": 3,
            "n_samples": 192.0,
            "class_counts": [
              192.0,
              0.0
            ],
            "impurity": 0.0,
            "is_leaf": true,
            "type": "leaf",
            "prediction": 0,
            "probabilities": [
              1.0,
              0.0
            ]
          }
        },
        "right": {
          "depth": 2,
          "n_samples": 548.0,
          "class_counts": [
            512.0,
            36.0
          ],
          "impurity": 0.1228,
          "is_leaf": false,
          "type": "split",
          "feature_name": "cap_shape=b",
          "feature_idx": 1,
          "split_condition": "cap_shape=b == 1",
          "left_condition": "cap_shape=b == 1 (TRUE)",
          "right_condition": "cap_shape=b == 0 (FALSE/NOT)",
          "left": {
            "depth": 3,
            "n_samples": 292.0,
            "class_counts": [
              256.0,
              36.0
            ],
            "impurity": 0.2162,
            "is_leaf": false,
            "type": "split",
            "feature_name": "cap_surface=s",
            "feature_idx": 6,
            "split_condition": "cap_surface=s == 1",
            "left_condition": "cap_surface=s == 1 (TRUE)",
            "right_condition": "cap_surface=s == 0 (FALSE/NOT)",
            "left": {
